digraph Tree {
node [shape=box, style="filled, rounded", color="black", fontname=helvetica] ;
edge [fontname=helvetica] ;
0 [label="petal length (cm) <= 2.45\ngini = 0.662\nsamples = 120\nvalue = [40, 46, 34]\nclass = versicolor", fillcolor="#f0fdf6"] ;
1 [label="gini = 0.0\nsamples = 40\nvalue = [40, 0, 0]\nclass = setosa", fillcolor="#e58139"] ;
0 -> 1 [labeldistance=2.5, labelangle=45, headlabel="True"] ;
2 [label="petal length (cm) <= 4.75\ngini = 0.489\nsamples = 80\nvalue = [0, 46, 34]\nclass = versicolor", fillcolor="#cbf8de"] ;
0 -> 2 [labeldistance=2.5, labelangle=-45, headlabel="False"] ;
3 [label="gini = 0.046\nsamples = 42\nvalue = [0, 41, 1]\nclass = versicolor", fillcolor="#3ee684"] ;
2 -> 3 ;
4 [label="gini = 0.229\nsamples = 38\nvalue = [0, 5, 33]\nclass = virginica", fillcolor="#9457e9"] ;
2 -> 4 ;
}